{"type":"LSTMTimeStep","options":{"inputSize":2,"hiddenLayers":[3,5,7,2],"outputSize":2,"decayRate":0.999,"smoothEps":1e-8,"regc":0.000001,"clipval":5},"hiddenLayers":[{"inputMatrix":{"rows":3,"columns":2,"weights":{"0":0.11693041771650314,"1":-0.0004389904788695276,"2":1.5616402626037598,"3":1.6343334913253784,"4":1.1152992248535156,"5":0.9827356934547424}},"inputHidden":{"rows":3,"columns":3,"weights":{"0":0.0292058065533638,"1":-0.07816795259714127,"2":0.0598975233733654,"3":-0.0631142258644104,"4":-0.3366353213787079,"5":0.5597634315490723,"6":0.1601785272359848,"7":-0.4766581952571869,"8":0.5742250680923462}},"inputBias":{"rows":3,"columns":1,"weights":{"0":-0.15308420360088348,"1":-0.05158141255378723,"2":-1.1473084688186646}},"forgetMatrix":{"rows":3,"columns":2,"weights":{"0":0.01350719016045332,"1":0.000995598267763853,"2":0.6505563855171204,"3":0.5705023407936096,"4":0.44911760091781616,"5":0.7250469923019409}},"forgetHidden":{"rows":3,"columns":3,"weights":{"0":0.07040167599916458,"1":-0.07037276774644852,"2":-0.021776311099529266,"3":-0.26949387788772583,"4":0.4251575171947479,"5":0.9952293634414673,"6":-0.014850097708404064,"7":1.0537493228912354,"8":-1.158130168914795}},"forgetBias":{"rows":3,"columns":1,"weights":{"0":0,"1":0,"2":0}},"outputMatrix":{"rows":3,"columns":2,"weights":{"0":0.09346665441989899,"1":0.11701232939958572,"2":1.7642732858657837,"3":1.65782630443573,"4":1.5696810483932495,"5":1.5468697547912598}},"outputHidden":{"rows":3,"columns":3,"weights":{"0":0.06349307298660278,"1":-0.13902397453784943,"2":-0.05408574268221855,"3":-0.15756234526634216,"4":-0.21059907972812653,"5":0.8148720860481262,"6":0.22199498116970062,"7":0.22549915313720703,"8":-0.5386934876441956}},"outputBias":{"rows":3,"columns":1,"weights":{"0":-0.14906159043312073,"1":-0.06593696027994156,"2":-0.8050794005393982}},"cellActivationMatrix":{"rows":3,"columns":2,"weights":{"0":0.7704823017120361,"1":0.13729791343212128,"2":-1.8330169916152954,"3":1.0667800903320312,"4":-1.189962387084961,"5":0.09484414011240005}},"cellActivationHidden":{"rows":3,"columns":3,"weights":{"0":-0.08300521224737167,"1":-0.6505334377288818,"2":0.014906192198395729,"3":-0.040713727474212646,"4":-0.028079142794013023,"5":-0.8556944131851196,"6":-0.45757943391799927,"7":1.5484479665756226,"8":1.1238093376159668}},"cellActivationBias":{"rows":3,"columns":1,"weights":{"0":-0.4521822929382324,"1":0.22712336480617523,"2":0.5927630662918091}}},{"inputMatrix":{"rows":5,"columns":3,"weights":{"0":0.14817696809768677,"1":-1.2225279808044434,"2":-0.7143034338951111,"3":0.1626470535993576,"4":-1.5368962287902832,"5":-0.9202108383178711,"6":0.1457897573709488,"7":-1.1614149808883667,"8":0.08370225876569748,"9":0.12826982140541077,"10":-0.613787055015564,"11":-0.3940451145172119,"12":0.2877608835697174,"13":-1.334506869316101,"14":-0.833014190196991}},"inputHidden":{"rows":5,"columns":5,"weights":{"0":0.4382100999355316,"1":-0.5381022095680237,"2":-0.016414185985922813,"3":-0.06339249759912491,"4":0.45368409156799316,"5":0.5223273038864136,"6":-0.5304747223854065,"7":0.1073308065533638,"8":-0.034421034157276154,"9":0.6356711387634277,"10":0.8361330628395081,"11":-0.6529732346534729,"12":-0.029164595529437065,"13":0.15500585734844208,"14":0.7152924537658691,"15":0.4889940321445465,"16":-0.296576589345932,"17":0.20550855994224548,"18":-0.04921074956655502,"19":0.3798048496246338,"20":0.4777996242046356,"21":-0.6882641911506653,"22":0.13898637890815735,"23":-0.11765655130147934,"24":0.6789996027946472}},"inputBias":{"rows":5,"columns":1,"weights":{"0":0.04861953482031822,"1":0.11478886008262634,"2":-0.10203052312135696,"3":0.013119049370288849,"4":0.15448525547981262}},"forgetMatrix":{"rows":5,"columns":3,"weights":{"0":-0.0008257034351117909,"1":-0.44863441586494446,"2":0.38790106773376465,"3":-0.020467445254325867,"4":-0.4078312814235687,"5":0.5829044580459595,"6":-0.01992141641676426,"7":0.039823587983846664,"8":0.2646319270133972,"9":-0.03989297151565552,"10":0.08368786424398422,"11":-0.09632384032011032,"12":-0.12140507251024246,"13":-0.31472572684288025,"14":0.5512227416038513}},"forgetHidden":{"rows":5,"columns":5,"weights":{"0":-0.0011470936005935073,"1":0.1864379346370697,"2":-0.30365055799484253,"3":0.3085373640060425,"4":-0.1953258216381073,"5":-0.34321096539497375,"6":0.4132589101791382,"7":-0.7910515069961548,"8":0.4407328963279724,"9":-0.18688781559467316,"10":-0.011664497666060925,"11":0.10664859414100647,"12":0.07384690642356873,"13":-0.044074896723032,"14":-0.1253974288702011,"15":0.024517908692359924,"16":0.05556383356451988,"17":0.1895422339439392,"18":-0.031844500452280045,"19":-0.07347506284713745,"20":-0.35653525590896606,"21":0.2487122118473053,"22":-0.65317702293396,"23":0.43704110383987427,"24":-0.19386877119541168}},"forgetBias":{"rows":5,"columns":1,"weights":{"0":0,"1":0,"2":0,"3":0,"4":0}},"outputMatrix":{"rows":5,"columns":3,"weights":{"0":0.3269656002521515,"1":-1.6783912181854248,"2":-0.5333999395370483,"3":0.29776573181152344,"4":-1.9697591066360474,"5":-0.8552623391151428,"6":0.3431619703769684,"7":-1.2870712280273438,"8":0.26082563400268555,"9":0.2197653353214264,"10":-0.667711615562439,"11":-0.4024409055709839,"12":0.32809212803840637,"13":-1.6880568265914917,"14":-0.6480357050895691}},"outputHidden":{"rows":5,"columns":5,"weights":{"0":0.508787989616394,"1":-0.4377441704273224,"2":-0.14055830240249634,"3":0.1072019413113594,"4":0.4981372654438019,"5":0.32362765073776245,"6":-0.6171730160713196,"7":-0.26732051372528076,"8":0.23081859946250916,"9":0.6139811873435974,"10":1.0483286380767822,"11":-0.582374095916748,"12":0.012842650525271893,"13":-0.0256013423204422,"14":0.5087714791297913,"15":0.5879780054092407,"16":-0.22522839903831482,"17":0.3659135699272156,"18":-0.1816302239894867,"19":0.24315404891967773,"20":0.5614880323410034,"21":-0.6661398410797119,"22":-0.17967639863491058,"23":0.1699564903974533,"24":0.6251740455627441}},"outputBias":{"rows":5,"columns":1,"weights":{"0":0.045397426933050156,"1":0.10921268165111542,"2":-0.10286043584346771,"3":0.013094790279865265,"4":0.15240103006362915}},"cellActivationMatrix":{"rows":5,"columns":3,"weights":{"0":0.20519208908081055,"1":-1.7185590267181396,"2":-0.7035990953445435,"3":0.03273198753595352,"4":1.6432870626449585,"5":0.18881003558635712,"6":0.25959891080856323,"7":-1.1477428674697876,"8":-1.6435394287109375,"9":-0.1792980432510376,"10":0.37827131152153015,"11":1.250381588935852,"12":0.03243199735879898,"13":-1.6510835886001587,"14":-0.241231769323349}},"cellActivationHidden":{"rows":5,"columns":5,"weights":{"0":-0.5745934844017029,"1":0.7701845169067383,"2":-1.023880124092102,"3":0.5413249135017395,"4":-0.6788057684898376,"5":0.8957111239433289,"6":-0.9486989378929138,"7":1.6935698986053467,"8":-1.0351427793502808,"9":0.731927216053009,"10":0.47505342960357666,"11":-0.32360586524009705,"12":0.7578123211860657,"13":-0.4460105001926422,"14":0.4145163297653198,"15":-0.5597994923591614,"16":0.5744621157646179,"17":-0.7167706489562988,"18":0.20032018423080444,"19":-0.5338093638420105,"20":-0.9122597575187683,"21":0.9286724328994751,"22":-1.6110782623291016,"23":1.084526777267456,"24":-0.7701573967933655}},"cellActivationBias":{"rows":5,"columns":1,"weights":{"0":0.7245593667030334,"1":-0.8412497043609619,"2":-0.010372290387749672,"3":0.33659517765045166,"4":0.8503021001815796}}},{"inputMatrix":{"rows":7,"columns":5,"weights":{"0":0.5176562666893005,"1":-0.6662684082984924,"2":0.5332251191139221,"3":-0.06920014321804047,"4":0.6785768866539001,"5":0.5956892371177673,"6":-0.6769022941589355,"7":0.5618007779121399,"8":-0.0073234448209404945,"9":0.6533802151679993,"10":0.596522867679596,"11":-0.6927663087844849,"12":0.48620447516441345,"13":-0.06125956028699875,"14":0.6770843863487244,"15":0.5684730410575867,"16":-0.7414906024932861,"17":0.5315011143684387,"18":-0.13113586604595184,"19":0.5782821774482727,"20":0.5116043090820312,"21":-0.6709933876991272,"22":0.398440420627594,"23":0.0615699328482151,"24":0.6151602268218994,"25":0.6273690462112427,"26":-0.729180097579956,"27":0.5609391927719116,"28":-0.04989830031991005,"29":0.7814649939537048,"30":0.6098924875259399,"31":-0.8189694285392761,"32":0.5531238317489624,"33":-0.020678041502833366,"34":0.6769898533821106}},"inputHidden":{"rows":7,"columns":7,"weights":{"0":-0.1336236447095871,"1":0.08877936005592346,"2":-0.12566222250461578,"3":-0.09140552580356598,"4":-0.09300632029771805,"5":-0.09927086532115936,"6":-0.06149405613541603,"7":-0.11010769754648209,"8":0.08835186809301376,"9":-0.11282385885715485,"10":-0.11353737860918045,"11":-0.03668251633644104,"12":-0.037630595266819,"13":-0.05003044381737709,"14":-0.09681589901447296,"15":0.041280075907707214,"16":-0.09667707979679108,"17":-0.11620976775884628,"18":-0.12165407836437225,"19":-0.13079194724559784,"20":-0.14562445878982544,"21":-0.14930100739002228,"22":0.04201492294669151,"23":-0.026810484007000923,"24":-0.0854400172829628,"25":-0.09036176651716232,"26":-0.13820195198059082,"27":-0.14915338158607483,"28":-0.019311033189296722,"29":0.0832597017288208,"30":-0.07474495470523834,"31":0.001120176282711327,"32":-0.1400296688079834,"33":-0.046300970017910004,"34":-0.10845190286636353,"35":-0.1846933662891388,"36":0.1764046996831894,"37":-0.13464416563510895,"38":-0.1784915030002594,"39":-0.08221348375082016,"40":-0.1388867199420929,"41":-0.11170004308223724,"42":-0.0810701996088028,"43":0.04919968545436859,"44":-0.09101293981075287,"45":0.0078921839594841,"46":-0.0025669666938483715,"47":-0.1376141458749771,"48":-0.12724041938781738}},"inputBias":{"rows":7,"columns":1,"weights":{"0":0.07094819843769073,"1":0.06152050569653511,"2":0.14224420487880707,"3":0.11646182835102081,"4":0.06654314696788788,"5":0.19988693296909332,"6":0.07964196801185608}},"forgetMatrix":{"rows":7,"columns":5,"weights":{"0":0.10276339203119278,"1":-0.21019844710826874,"2":0.09250976890325546,"3":0.08259802311658859,"4":0.24501073360443115,"5":0.2549910545349121,"6":-0.33987733721733093,"7":-0.0037179659120738506,"8":0.059842973947525024,"9":0.2843148112297058,"10":0.14317044615745544,"11":-0.29410916566848755,"12":0.032402846962213516,"13":0.19598421454429626,"14":0.3395574986934662,"15":0.09289117157459259,"16":-0.24075859785079956,"17":0.11289146542549133,"18":0.14073152840137482,"19":0.33836087584495544,"20":0.09635330736637115,"21":-0.2820345163345337,"22":0.001610762788914144,"23":0.11023811995983124,"24":0.30126693844795227,"25":0.18613791465759277,"26":-0.3196634352207184,"27":0.028739461675286293,"28":0.12415797263383865,"29":0.348026841878891,"30":0.14781048893928528,"31":-0.3744446635246277,"32":-0.021638881415128708,"33":0.09034376591444016,"34":0.33897194266319275}},"forgetHidden":{"rows":7,"columns":7,"weights":{"0":-0.18447695672512054,"1":0.2177664339542389,"2":-0.14954499900341034,"3":-0.2067783772945404,"4":-0.11182288825511932,"5":-0.1599825769662857,"6":-0.2402496039867401,"7":-0.15750353038311005,"8":0.21438820660114288,"9":-0.10460008680820465,"10":-0.09431661665439606,"11":-0.197487473487854,"12":-0.1571294367313385,"13":-0.21874496340751648,"14":-0.15435189008712769,"15":0.11258608847856522,"16":-0.14292791485786438,"17":-0.23318901658058167,"18":-0.11903539299964905,"19":-0.16470035910606384,"20":-0.23665067553520203,"21":-0.16408394277095795,"22":0.1994548887014389,"23":-0.19358772039413452,"24":-0.24727851152420044,"25":-0.2025729864835739,"26":-0.2018793225288391,"27":-0.1358216404914856,"28":-0.22321222722530365,"29":0.1740524023771286,"30":-0.19460518658161163,"31":-0.11540865898132324,"32":-0.24427373707294464,"33":-0.15966324508190155,"34":-0.16368693113327026,"35":-0.14355500042438507,"36":0.2746897041797638,"37":-0.1734429895877838,"38":-0.22816626727581024,"39":-0.1186312809586525,"40":-0.2628002464771271,"41":-0.19058138132095337,"42":-0.1135290339589119,"43":0.25613710284233093,"44":-0.19377867877483368,"45":-0.14763985574245453,"46":-0.20146684348583221,"47":-0.1250487118959427,"48":-0.15343403816223145}},"forgetBias":{"rows":7,"columns":1,"weights":{"0":0,"1":0,"2":0,"3":0,"4":0,"5":0,"6":0}},"outputMatrix":{"rows":7,"columns":5,"weights":{"0":0.6522696018218994,"1":-0.8132036328315735,"2":0.4558224081993103,"3":0.037624143064022064,"4":0.9386981725692749,"5":0.7320898771286011,"6":-1.0082682371139526,"7":0.4305989146232605,"8":0.01273253746330738,"9":0.9856321215629578,"10":0.7337905764579773,"11":-0.8366109728813171,"12":0.4819534420967102,"13":0.035264935344457626,"14":0.8646876811981201,"15":0.7526397109031677,"16":-0.8589847683906555,"17":0.455930233001709,"18":-0.0801045149564743,"19":0.7980738878250122,"20":0.616068422794342,"21":-0.7878111600875854,"22":0.4880586564540863,"23":0.03354382514953613,"24":0.8596574664115906,"25":0.7442485690116882,"26":-0.9551963806152344,"27":0.4978409707546234,"28":0.036826781928539276,"29":0.9392338991165161,"30":0.7215136885643005,"31":-1.0108425617218018,"32":0.5047264695167542,"33":0.05720575898885727,"34":0.95951908826828}},"outputHidden":{"rows":7,"columns":7,"weights":{"0":-0.016823258250951767,"1":0.02223190851509571,"2":-0.0029211302753537893,"3":-0.1362050622701645,"4":-0.014847871847450733,"5":-0.14247913658618927,"6":-0.08088640868663788,"7":-0.12117327749729156,"8":0.12368986755609512,"9":-0.08183740824460983,"10":-0.118402399122715,"11":-0.07567313313484192,"12":-0.113101527094841,"13":-0.04018952697515488,"14":-0.024296443909406662,"15":0.09188362210988998,"16":-0.10305121541023254,"17":-0.03872308507561684,"18":-0.021381938830018044,"19":-0.03196806088089943,"20":-0.1350763738155365,"21":-0.15112268924713135,"22":0.14912568032741547,"23":0.022056009620428085,"24":-0.1297426074743271,"25":-0.07697480171918869,"26":-0.12014396488666534,"27":-0.0604466050863266,"28":-0.12625528872013092,"29":0.016368160024285316,"30":-0.10596469044685364,"31":-0.12412365525960922,"32":0.02089397795498371,"33":-0.04948069527745247,"34":-0.0522378608584404,"35":-0.05354003608226776,"36":0.12068861722946167,"37":-0.09919782727956772,"38":-0.09448099136352539,"39":-0.08104381710290909,"40":-0.06886313110589981,"41":-0.10692118108272552,"42":0.00592679250985384,"43":0.04283958300948143,"44":-0.04956759512424469,"45":-0.02085651271045208,"46":-0.07817064970731735,"47":0.012978381477296352,"48":-0.10403083264827728}},"outputBias":{"rows":7,"columns":1,"weights":{"0":0.06975840777158737,"1":0.06465662270784378,"2":0.1428518295288086,"3":0.1136167123913765,"4":0.06783227622509003,"5":0.20022408664226532,"6":0.0796816349029541}},"cellActivationMatrix":{"rows":7,"columns":5,"weights":{"0":0.569507360458374,"1":-0.8436670899391174,"2":0.797169029712677,"3":-0.26372280716896057,"4":0.5973369479179382,"5":-0.6499255895614624,"6":0.7963781952857971,"7":-0.783273458480835,"8":0.4361203610897064,"9":-0.5916476249694824,"10":0.7505400776863098,"11":-0.8668248653411865,"12":0.7368957996368408,"13":-0.3990424573421478,"14":0.737066388130188,"15":0.7060049176216125,"16":-0.8696184158325195,"17":0.6370962858200073,"18":-0.40419667959213257,"19":0.6884571313858032,"20":0.7054988145828247,"21":-0.876672089099884,"22":0.7104684114456177,"23":-0.4402255415916443,"24":0.6222426891326904,"25":0.7301573753356934,"26":-0.8309575915336609,"27":0.7979974150657654,"28":-0.3882714807987213,"29":0.6047800779342651,"30":0.6435971260070801,"31":-0.9338453412055969,"32":0.7278878688812256,"33":-0.3864681124687195,"34":0.7656552195549011}},"cellActivationHidden":{"rows":7,"columns":7,"weights":{"0":-0.04651849344372749,"1":0.07280874252319336,"2":0.04169873520731926,"3":0.007773709949105978,"4":-0.10896691679954529,"5":-0.05515813082456589,"6":-0.044396862387657166,"7":-0.018133198842406273,"8":-0.08940534293651581,"9":-0.004553020466119051,"10":-0.0019872107077389956,"11":0.003288606647402048,"12":0.10082516819238663,"13":-0.048308197408914566,"14":-0.1083582267165184,"15":0.15496157109737396,"16":-0.05548606067895889,"17":-0.06166677922010422,"18":-0.05451880395412445,"19":-0.00402913149446249,"20":-0.07354607433080673,"21":-0.08431373536586761,"22":0.04237176850438118,"23":0.033652156591415405,"24":-0.08901271224021912,"25":-0.08746550977230072,"26":-0.09951010346412659,"27":0.006112564355134964,"28":-0.022864868864417076,"29":-0.010008338838815689,"30":0.00696304626762867,"31":0.03544114530086517,"32":0.037427935749292374,"33":0.03463814780116081,"34":-0.009270079433918,"35":-0.11737018078565598,"36":0.10866912454366684,"37":-0.05189071223139763,"38":-0.12455494701862335,"39":-0.17013180255889893,"40":-0.06172660365700722,"41":-0.10622075200080872,"42":-0.11055363714694977,"43":0.11015915125608444,"44":-0.008577266708016396,"45":-0.0007393070845864713,"46":-0.030999543145298958,"47":-0.06346156448125839,"48":-0.1042741909623146}},"cellActivationBias":{"rows":7,"columns":1,"weights":{"0":0.33580803871154785,"1":-0.30927473306655884,"2":0.3779163658618927,"3":0.3768919110298157,"4":0.31695377826690674,"5":0.4680275321006775,"6":0.32130545377731323}}},{"inputMatrix":{"rows":2,"columns":7,"weights":{"0":0.3229197859764099,"1":-0.38999664783477783,"2":0.36941730976104736,"3":0.392871230840683,"4":0.37933865189552307,"5":0.4355212152004242,"6":0.2857997417449951,"7":0.4077674448490143,"8":-0.41455239057540894,"9":0.4351045489311218,"10":0.37148696184158325,"11":0.3413577675819397,"12":0.48517462611198425,"13":0.44643038511276245}},"inputHidden":{"rows":2,"columns":2,"weights":{"0":-0.14571508765220642,"1":-0.08225435018539429,"2":-0.18346475064754486,"3":0.03641699254512787}},"inputBias":{"rows":2,"columns":1,"weights":{"0":0.46279314160346985,"1":0.2418617308139801}},"forgetMatrix":{"rows":2,"columns":7,"weights":{"0":0.23409080505371094,"1":-0.16066864132881165,"2":0.22900524735450745,"3":0.1440643072128296,"4":0.08809888362884521,"5":0.18129390478134155,"6":0.19279667735099792,"7":0.24415650963783264,"8":-0.18529430031776428,"9":0.20976072549819946,"10":0.24999524652957916,"11":0.15544158220291138,"12":0.25879332423210144,"13":0.32916536927223206}},"forgetHidden":{"rows":2,"columns":2,"weights":{"0":0.024660127237439156,"1":-0.1655493527650833,"2":0.07858316600322723,"3":-0.017659438773989677}},"forgetBias":{"rows":2,"columns":1,"weights":{"0":0,"1":0}},"outputMatrix":{"rows":2,"columns":7,"weights":{"0":0.2606356143951416,"1":-0.3430793285369873,"2":0.2734892964363098,"3":0.2545412480831146,"4":0.31819114089012146,"5":0.3908521234989166,"6":0.3060245215892792,"7":0.3487216830253601,"8":-0.37256255745887756,"9":0.40751299262046814,"10":0.3129742741584778,"11":0.2795220911502838,"12":0.33841949701309204,"13":0.46829599142074585}},"outputHidden":{"rows":2,"columns":2,"weights":{"0":-0.14117756485939026,"1":0.046980153769254684,"2":-0.14142748713493347,"3":0.14337101578712463}},"outputBias":{"rows":2,"columns":1,"weights":{"0":0.5116561055183411,"1":0.2800673544406891}},"cellActivationMatrix":{"rows":2,"columns":7,"weights":{"0":-0.4628334045410156,"1":0.5064181685447693,"2":-0.4580686092376709,"3":-0.5146894454956055,"4":-0.47370103001594543,"5":-0.5684365630149841,"6":-0.4926595687866211,"7":0.5434896349906921,"8":-0.46852514147758484,"9":0.5511311292648315,"10":0.5732148885726929,"11":0.5440329909324646,"12":0.5065809488296509,"13":0.5405847430229187}},"cellActivationHidden":{"rows":2,"columns":2,"weights":{"0":0.3885214626789093,"1":-0.238103449344635,"2":-0.40306228399276733,"3":0.4035624861717224}},"cellActivationBias":{"rows":2,"columns":1,"weights":{"0":-0.5864795446395874,"1":0.4281286895275116}}}],"outputConnector":{"rows":2,"columns":2,"weights":{"0":-0.4814964830875397,"1":0.5793817639350891,"2":-0.02607664279639721,"3":-0.023120643571019173}},"output":{"rows":2,"columns":1,"weights":{"0":0.13892942667007446,"1":0.9978383183479309}},"inputLookup":{"unidades":0,"precio":1},"inputLookupLength":2,"outputLookup":{"unidades":0,"precio":1},"outputLookupLength":2}