{"type":"LSTMTimeStep","options":{"inputSize":2,"hiddenLayers":[3,5,7,2],"outputSize":2,"decayRate":0.999,"smoothEps":1e-8,"regc":0.000001,"clipval":5},"hiddenLayers":[{"inputMatrix":{"rows":3,"columns":2,"weights":{"0":0.21603955328464508,"1":0.13130442798137665,"2":-0.14704011380672455,"3":-0.08808183670043945,"4":-0.15058736503124237,"5":-0.03076709434390068}},"inputHidden":{"rows":3,"columns":3,"weights":{"0":0.09539776295423508,"1":-0.04238056018948555,"2":0.009576245211064816,"3":0.033888474106788635,"4":0.01577112264931202,"5":0.007812627591192722,"6":-0.05779903009533882,"7":0.06697099655866623,"8":0.12619322538375854}},"inputBias":{"rows":3,"columns":1,"weights":{"0":-0.07975220680236816,"1":-0.03324190527200699,"2":-0.1344679892063141}},"forgetMatrix":{"rows":3,"columns":2,"weights":{"0":0.07631862908601761,"1":-0.016856350004673004,"2":0.03663879632949829,"3":-0.03454723209142685,"4":-0.034399233758449554,"5":-0.12821777164936066}},"forgetHidden":{"rows":3,"columns":3,"weights":{"0":-0.02881876565515995,"1":-0.034434445202350616,"2":0.04265274107456207,"3":-0.06330092251300812,"4":-0.07046430557966232,"5":-0.05987049266695976,"6":-0.0496874637901783,"7":0.006907232105731964,"8":0.058244816958904266}},"forgetBias":{"rows":3,"columns":1,"weights":{"0":0,"1":0,"2":0}},"outputMatrix":{"rows":3,"columns":2,"weights":{"0":0.15368525683879852,"1":0.14953970909118652,"2":-0.07072180509567261,"3":-0.04435351490974426,"4":-0.05729149654507637,"5":-0.13205917179584503}},"outputHidden":{"rows":3,"columns":3,"weights":{"0":0.08515937626361847,"1":0.018742701038718224,"2":-0.00555328419432044,"3":-0.07017629593610764,"4":-0.037919141352176666,"5":0.03695853799581528,"6":0.02727263607084751,"7":0.03339909389615059,"8":0.08542792499065399}},"outputBias":{"rows":3,"columns":1,"weights":{"0":-0.07745501399040222,"1":-0.03205312043428421,"2":-0.13847720623016357}},"cellActivationMatrix":{"rows":3,"columns":2,"weights":{"0":-0.28831470012664795,"1":-0.35369518399238586,"2":0.08104874193668365,"3":-0.17613881826400757,"4":-0.06620249897241592,"5":-0.3812066912651062}},"cellActivationHidden":{"rows":3,"columns":3,"weights":{"0":0.0799594521522522,"1":0.03235435485839844,"2":0.15774396061897278,"3":0.061884403228759766,"4":-0.06580814719200134,"5":-0.028085261583328247,"6":0.05204206332564354,"7":-0.1301608830690384,"8":-0.1432601660490036}},"cellActivationBias":{"rows":3,"columns":1,"weights":{"0":-0.1337011158466339,"1":0.10865098237991333,"2":0.21068409085273743}}},{"inputMatrix":{"rows":5,"columns":3,"weights":{"0":-0.11601022630929947,"1":0.08879982680082321,"2":0.09022074192762375,"3":-0.06824356317520142,"4":0.07394155114889145,"5":0.06863272190093994,"6":-0.06700015813112259,"7":0.047648899257183075,"8":0.0517258495092392,"9":-0.23258469998836517,"10":0.07851837575435638,"11":-0.03909832984209061,"12":0.07879555225372314,"13":0.06097470968961716,"14":0.10945311933755875}},"inputHidden":{"rows":5,"columns":5,"weights":{"0":0.3490676283836365,"1":-0.1443709284067154,"2":0.11934215575456619,"3":-0.43134376406669617,"4":-0.09237948805093765,"5":0.2121557742357254,"6":-0.0993310958147049,"7":0.0862930566072464,"8":-0.21360307931900024,"9":-0.019261043518781662,"10":0.011846782639622688,"11":-0.03267863392829895,"12":-0.008881106972694397,"13":0.06921342015266418,"14":-0.06584034860134125,"15":0.5538895726203918,"16":-0.45751798152923584,"17":0.03921952471137047,"18":-0.6170933842658997,"19":-0.01888265833258629,"20":-0.08906958252191544,"21":0.021309560164809227,"22":-0.018317673355340958,"23":0.13306529819965363,"24":-0.012732279486954212}},"inputBias":{"rows":5,"columns":1,"weights":{"0":-0.21547344326972961,"1":-0.22311712801456451,"2":-0.026350218802690506,"3":-0.1887318342924118,"4":-0.0429663360118866}},"forgetMatrix":{"rows":5,"columns":3,"weights":{"0":-0.07555048167705536,"1":0.009448527358472347,"2":-0.017700133845210075,"3":-0.054414086043834686,"4":-0.04535364359617233,"5":0.05646891891956329,"6":0.0477285236120224,"7":-0.05444473400712013,"8":0.011989884078502655,"9":-0.11289852857589722,"10":0.0814913958311081,"11":0.03888325020670891,"12":0.029272275045514107,"13":-0.04990463703870773,"14":0.045234259217977524}},"forgetHidden":{"rows":5,"columns":5,"weights":{"0":0.05112987011671066,"1":-0.034612610936164856,"2":0.10955190658569336,"3":-0.20396772027015686,"4":-0.04115470498800278,"5":-0.019899340346455574,"6":0.08151917904615402,"7":0.01572948507964611,"8":0.01782519556581974,"9":0.019612189382314682,"10":0.0334709994494915,"11":0.002116135321557522,"12":-0.051228754222393036,"13":0.009020987898111343,"14":-0.04108672961592674,"15":0.1821100115776062,"16":-0.21333372592926025,"17":0.08308961987495422,"18":-0.33465883135795593,"19":-0.05866215005517006,"20":0.05907052010297775,"21":-0.027954570949077606,"22":-0.022356903180480003,"23":0.045585524290800095,"24":-0.045976705849170685}},"forgetBias":{"rows":5,"columns":1,"weights":{"0":0,"1":0,"2":0,"3":0,"4":0}},"outputMatrix":{"rows":5,"columns":3,"weights":{"0":-0.1029762327671051,"1":0.07732205837965012,"2":0.0720290094614029,"3":-0.13064000010490417,"4":0.04302992299199104,"5":0.025029173120856285,"6":-0.050530511885881424,"7":0.07695917785167694,"8":0.03266403451561928,"9":-0.18654724955558777,"10":0.006344675552099943,"11":0.02073720097541809,"12":-0.04640023037791252,"13":-0.008560632355511189,"14":-0.0006268119905143976}},"outputHidden":{"rows":5,"columns":5,"weights":{"0":0.44435641169548035,"1":-0.18115311861038208,"2":-0.00661642337217927,"3":-0.5424136519432068,"4":-0.15003128349781036,"5":0.24009616672992706,"6":-0.15644121170043945,"7":0.11183466017246246,"8":-0.24401362240314484,"9":-0.16195738315582275,"10":0.0066175153478980064,"11":0.03331681713461876,"12":0.03763299062848091,"13":0.027422098442912102,"14":0.04147592931985855,"15":0.5825561881065369,"16":-0.4434714913368225,"17":-0.004997696727514267,"18":-0.7415086627006531,"19":0.05806906893849373,"20":-0.0525142103433609,"21":0.1244128867983818,"22":0.0585026741027832,"23":0.01803266443312168,"24":0.0028607980348169804}},"outputBias":{"rows":5,"columns":1,"weights":{"0":-0.21778066456317902,"1":-0.223533496260643,"2":-0.026442307978868484,"3":-0.18895623087882996,"4":-0.042529720813035965}},"cellActivationMatrix":{"rows":5,"columns":3,"weights":{"0":-0.47148439288139343,"1":-0.04769715294241905,"2":-0.2608325779438019,"3":0.3064328134059906,"4":0.11711074411869049,"5":0.2040976732969284,"6":0.09178037196397781,"7":-0.08577237278223038,"8":0.08119101077318192,"9":0.36255884170532227,"10":0.021768083795905113,"11":0.09877819567918777,"12":-0.232913076877594,"13":-0.058299869298934937,"14":-0.010911251418292522}},"cellActivationHidden":{"rows":5,"columns":5,"weights":{"0":0.7857949137687683,"1":-0.6296975612640381,"2":0.032880377024412155,"3":-1.0047404766082764,"4":0.035521671175956726,"5":-0.7978565096855164,"6":0.5676484704017639,"7":0.022455617785453796,"8":0.9904413819313049,"9":0.06671877205371857,"10":-0.22107382118701935,"11":0.068562813103199,"12":-0.04882531985640526,"13":0.4126022160053253,"14":0.12876377999782562,"15":-0.9939966797828674,"16":0.6811875104904175,"17":0.027735600247979164,"18":1.0524052381515503,"19":-0.14326904714107513,"20":-0.012399928644299507,"21":0.11827708780765533,"22":0.10877213627099991,"23":-0.08564632385969162,"24":-0.18608273565769196}},"cellActivationBias":{"rows":5,"columns":1,"weights":{"0":0.14285500347614288,"1":0.0691608339548111,"2":0.14368081092834473,"3":-0.3535824120044708,"4":-0.12240976095199585}}},{"inputMatrix":{"rows":7,"columns":5,"weights":{"0":0.15544500946998596,"1":-0.1557130068540573,"2":-0.22480274736881256,"3":-0.180621936917305,"4":0.11010425537824631,"5":-0.3720552921295166,"6":0.2161775827407837,"7":-0.07013009488582611,"8":0.5473273992538452,"9":0.05393674969673157,"10":0.11757449060678482,"11":-0.07972615212202072,"12":-0.07608133554458618,"13":-0.13465029001235962,"14":0.16617116332054138,"15":0.45472750067710876,"16":-0.2915239632129669,"17":-0.16805855929851532,"18":-0.5974130034446716,"19":0.1861654371023178,"20":0.42386481165885925,"21":-0.3691841661930084,"22":-0.15404486656188965,"23":-0.6260170936584473,"24":0.10916680842638016,"25":0.15212269127368927,"26":-0.19145417213439941,"27":-0.2054888904094696,"28":-0.18555255234241486,"29":0.1826210767030716,"30":0.09824226051568985,"31":-0.06939558684825897,"32":-0.05464484170079231,"33":-0.16155298054218292,"34":0.03384951874613762}},"inputHidden":{"rows":7,"columns":7,"weights":{"0":-0.25542181730270386,"1":-0.6608202457427979,"2":-0.32437217235565186,"3":-0.1580491065979004,"4":0.0741376280784607,"5":-0.0936046913266182,"6":-0.28436902165412903,"7":-0.1513112187385559,"8":-1.593247890472412,"9":0.06458622962236404,"10":-1.0948421955108643,"11":-0.7250127196311951,"12":-0.24096281826496124,"13":0.08215589821338654,"14":-0.23452918231487274,"15":-0.5559847950935364,"16":-0.2839834690093994,"17":-0.12522059679031372,"18":0.1795155555009842,"19":-0.19817538559436798,"20":-0.2744532823562622,"21":-0.026195203885436058,"22":0.4246082901954651,"23":-0.12149423360824585,"24":0.17209962010383606,"25":0.31695854663848877,"26":-0.05939849838614464,"27":-0.22455690801143646,"28":-0.1502380520105362,"29":-0.13092957437038422,"30":-0.2864585816860199,"31":0.15806323289871216,"32":0.2720058262348175,"33":-0.03127600997686386,"34":-0.22707399725914001,"35":-0.09825175255537033,"36":-0.41887927055358887,"37":-0.13043323159217834,"38":-0.19129793345928192,"39":-0.10797546058893204,"40":0.04508370906114578,"41":-0.1457369029521942,"42":-0.3140868842601776,"43":-0.5126323699951172,"44":-0.3144247531890869,"45":-0.11561240255832672,"46":0.12563325464725494,"47":-0.21499963104724884,"48":-0.3256976902484894}},"inputBias":{"rows":7,"columns":1,"weights":{"0":-0.07512345910072327,"1":1.1320180892944336,"2":-0.015616299584507942,"3":-0.10432901233434677,"4":0.14855951070785522,"5":-0.035535912960767746,"6":-0.011106966063380241}},"forgetMatrix":{"rows":7,"columns":5,"weights":{"0":0.20986413955688477,"1":-0.10026471316814423,"2":-0.1753038614988327,"3":-0.1926421970129013,"4":0.17085005342960358,"5":0.33786270022392273,"6":-0.21570709347724915,"7":-0.09793021529912949,"8":-0.37955498695373535,"9":0.19357147812843323,"10":0.137606680393219,"11":-0.0609373077750206,"12":-0.0570247583091259,"13":-0.0911845937371254,"14":0.03826312720775604,"15":0.21936900913715363,"16":-0.15581783652305603,"17":-0.02844284288585186,"18":-0.3627072870731354,"19":0.0730719342827797,"20":0.29026246070861816,"21":-0.22507637739181519,"22":-0.09097743034362793,"23":-0.3945543169975281,"24":0.13957157731056213,"25":0.18028666079044342,"26":-0.1656496226787567,"27":-0.1269669234752655,"28":-0.08235716074705124,"29":0.09859172999858856,"30":0.16158591210842133,"31":-0.004918509162962437,"32":-0.19440746307373047,"33":-0.18409384787082672,"34":0.09081766754388809}},"forgetHidden":{"rows":7,"columns":7,"weights":{"0":-0.15036322176456451,"1":-0.6662998199462891,"2":-0.16205017268657684,"3":-0.20432345569133759,"4":-0.1374451071023941,"5":-0.09105518460273743,"6":-0.2520226538181305,"7":0.45072436332702637,"8":-2.135441780090332,"9":0.5665469169616699,"10":-0.553192675113678,"11":-0.9553113579750061,"12":0.05198781564831734,"13":0.6806644797325134,"14":-0.21504788100719452,"15":-0.62320476770401,"16":-0.2292035073041916,"17":-0.2726553976535797,"18":0.02624095417559147,"19":-0.12018334120512009,"20":-0.2836102843284607,"21":0.017508020624518394,"22":0.16019216179847717,"23":-0.0749620646238327,"24":0.1448925882577896,"25":0.33120959997177124,"26":0.03480590507388115,"27":-0.16730716824531555,"28":-0.06755244731903076,"29":0.042728766798973083,"30":-0.25850966572761536,"31":0.17398808896541595,"32":0.38157492876052856,"33":-0.06790845841169357,"34":-0.22284731268882751,"35":-0.1052086353302002,"36":-0.3431551456451416,"37":-0.08442878723144531,"38":-0.28708934783935547,"39":-0.06312596797943115,"40":-0.028692374005913734,"41":-0.000608523900154978,"42":-0.18206436932086945,"43":-0.7349543571472168,"44":-0.2869555950164795,"45":-0.18747396767139435,"46":-0.06614950299263,"47":-0.10827408730983734,"48":-0.3002142906188965}},"forgetBias":{"rows":7,"columns":1,"weights":{"0":0,"1":0,"2":0,"3":0,"4":0,"5":0,"6":0}},"outputMatrix":{"rows":7,"columns":5,"weights":{"0":0.25383877754211426,"1":-0.20856992900371552,"2":-0.1725265085697174,"3":-0.43642184138298035,"4":0.10559110343456268,"5":0.20513920485973358,"6":-0.11751458048820496,"7":-0.08536379039287567,"8":0.07159382104873657,"9":0.3355441391468048,"10":0.17461681365966797,"11":-0.10687033087015152,"12":-0.105164535343647,"13":-0.5408832430839539,"14":0.1467542052268982,"15":0.7024820446968079,"16":-0.4580641984939575,"17":-0.10847758501768112,"18":-0.8048951625823975,"19":0.1704796999692917,"20":0.6848574280738831,"21":-0.45503363013267517,"22":-0.21977917850017548,"23":-0.7601707577705383,"24":0.23691897094249725,"25":0.2483307272195816,"26":-0.3281611204147339,"27":-0.11998824775218964,"28":-0.31226035952568054,"29":0.2136988490819931,"30":0.26464760303497314,"31":-0.1840042620897293,"32":-0.07962685078382492,"33":-0.5061441659927368,"34":0.16486947238445282}},"outputHidden":{"rows":7,"columns":7,"weights":{"0":-0.30933406949043274,"1":-0.7446903586387634,"2":-0.3046134114265442,"3":-0.11900052428245544,"4":0.10119324922561646,"5":-0.26984328031539917,"6":-0.33010992407798767,"7":0.3809621036052704,"8":-2.447371244430542,"9":0.5572240352630615,"10":-1.1717907190322876,"11":-0.9813255071640015,"12":-0.03852585330605507,"13":0.6298708319664001,"14":-0.4078949987888336,"15":-0.7204166054725647,"16":-0.2979104816913605,"17":-0.01329253613948822,"18":0.07202008366584778,"19":-0.27814018726348877,"20":-0.3236897587776184,"21":-0.14248566329479218,"22":0.33753809332847595,"23":-0.23431187868118286,"24":0.1489625871181488,"25":0.35801151394844055,"26":-0.014072570949792862,"27":-0.1509186178445816,"28":-0.2749149203300476,"29":-0.035391539335250854,"30":-0.3445824682712555,"31":0.20837700366973877,"32":0.35544389486312866,"33":-0.10115906596183777,"34":-0.3864278495311737,"35":-0.09176915138959885,"36":-0.4473612904548645,"37":-0.19832494854927063,"38":-0.17061549425125122,"39":-0.040546715259552,"40":-0.026627156883478165,"41":-0.09741929173469543,"42":-0.4033335745334625,"43":-0.7662394046783447,"44":-0.31447142362594604,"45":-0.12284266948699951,"46":0.1708824634552002,"47":-0.29497671127319336,"48":-0.3990461826324463}},"outputBias":{"rows":7,"columns":1,"weights":{"0":-0.07604387402534485,"1":1.2254002094268799,"2":-0.012415685690939426,"3":-0.10055908560752869,"4":0.1438756287097931,"5":-0.03312738239765167,"6":-0.0040351031348109245}},"cellActivationMatrix":{"rows":7,"columns":5,"weights":{"0":0.2622808814048767,"1":-0.14785011112689972,"2":0.09227192401885986,"3":-0.3536107838153839,"4":-0.005109385121613741,"5":1.1502705812454224,"6":-0.9130409359931946,"7":-0.2757515013217926,"8":-1.5721840858459473,"9":-0.015712225809693336,"10":0.4395069181919098,"11":-0.20730307698249817,"12":-0.0006078364094719291,"13":-0.6353691816329956,"14":0.01867772825062275,"15":0.2865639626979828,"16":-0.3340914845466614,"17":-0.17277714610099792,"18":-0.5000432729721069,"19":-0.1411714404821396,"20":0.27964848279953003,"21":-0.4475024938583374,"22":-0.30096280574798584,"23":-0.303911030292511,"24":0.07687543332576752,"25":-0.014949138276278973,"26":-0.05200306326150894,"27":0.06358755379915237,"28":-0.24538668990135193,"29":-0.03302780166268349,"30":0.5163987278938293,"31":-0.3955554664134979,"32":0.028643909841775894,"33":-0.8103001713752747,"34":-0.030118849128484726}},"cellActivationHidden":{"rows":7,"columns":7,"weights":{"0":0.2870655357837677,"1":0.9634671807289124,"2":0.1435898244380951,"3":0.29305678606033325,"4":0.12165644019842148,"5":0.193886861205101,"6":0.18874314427375793,"7":-0.5648841261863708,"8":0.8733323812484741,"9":-0.6005362272262573,"10":1.1395946741104126,"11":1.4283236265182495,"12":-0.42287755012512207,"13":-0.5783378481864929,"14":0.3943824768066406,"15":0.8526372313499451,"16":0.29765793681144714,"17":0.33372604846954346,"18":0.10053852945566177,"19":0.2401917725801468,"20":0.3454607129096985,"21":-0.37121403217315674,"22":0.767143189907074,"23":-0.411789208650589,"24":0.34253641963005066,"25":0.6341182589530945,"26":-0.13233284652233124,"27":-0.3861243426799774,"28":-0.6316345930099487,"29":0.08178389817476273,"30":-0.6968483328819275,"31":0.32030850648880005,"32":0.687150239944458,"33":-0.31236445903778076,"34":-0.7205885648727417,"35":0.10076799243688583,"36":0.8296175003051758,"37":0.02229786291718483,"38":0.10116695612668991,"39":0.1535862386226654,"40":0.22038915753364563,"41":0.018419889733195305,"42":0.39151498675346375,"43":0.9294372200965881,"44":0.3034006357192993,"45":0.45649924874305725,"46":0.0729903131723404,"47":0.3011240065097809,"48":0.36961644887924194}},"cellActivationBias":{"rows":7,"columns":1,"weights":{"0":0.022165007889270782,"1":-1.2751291990280151,"2":0.012995823286473751,"3":-0.021121297031641006,"4":-0.39185383915901184,"5":-0.11713891476392746,"6":0.00381681090220809}}},{"inputMatrix":{"rows":2,"columns":7,"weights":{"0":-0.15069261193275452,"1":1.0164039134979248,"2":-0.20563077926635742,"3":-0.1238652765750885,"4":0.002022168133407831,"5":-0.0728527083992958,"6":-0.35564711689949036,"7":-0.2937912344932556,"8":0.9165198802947998,"9":-0.2873663902282715,"10":-0.06892319023609161,"11":-0.012059354223310947,"12":-0.05958535149693489,"13":-0.33802253007888794}},"inputHidden":{"rows":2,"columns":2,"weights":{"0":0.07922515273094177,"1":-0.013092993758618832,"2":0.005262481980025768,"3":0.06163151562213898}},"inputBias":{"rows":2,"columns":1,"weights":{"0":0.7405995726585388,"1":0.6245464086532593}},"forgetMatrix":{"rows":2,"columns":7,"weights":{"0":-0.22230714559555054,"1":0.9992464780807495,"2":-0.2592439651489258,"3":-0.1665550321340561,"4":-0.01357307843863964,"5":-0.011807236820459366,"6":-0.18243959546089172,"7":-0.21190764009952545,"8":1.208025574684143,"9":-0.358101487159729,"10":-0.13624267280101776,"11":-0.07455432415008545,"12":-0.12728901207447052,"13":-0.4004872739315033}},"forgetHidden":{"rows":2,"columns":2,"weights":{"0":-0.1423872858285904,"1":-0.08866705745458603,"2":-0.09020303934812546,"3":-0.08892062306404114}},"forgetBias":{"rows":2,"columns":1,"weights":{"0":0,"1":0}},"outputMatrix":{"rows":2,"columns":7,"weights":{"0":-0.1744813621044159,"1":0.8396747708320618,"2":-0.3349142372608185,"3":0.067874476313591,"4":0.0931161567568779,"5":-0.10825816541910172,"6":-0.3202154040336609,"7":-0.3328385055065155,"8":0.82563316822052,"9":-0.2572515904903412,"10":0.1252337396144867,"11":0.14682535827159882,"12":-0.21814817190170288,"13":-0.4052855372428894}},"outputHidden":{"rows":2,"columns":2,"weights":{"0":0.11397858709096909,"1":0.009292768314480782,"2":0.031014306470751762,"3":0.09276088327169418}},"outputBias":{"rows":2,"columns":1,"weights":{"0":0.7953514456748962,"1":0.6831480860710144}},"cellActivationMatrix":{"rows":2,"columns":7,"weights":{"0":-0.3961976170539856,"1":0.05618194863200188,"2":-0.3765171766281128,"3":-0.2162504643201828,"4":-0.4175224006175995,"5":-0.45786532759666443,"6":-0.34162312746047974,"7":-0.46081385016441345,"8":0.009913947433233261,"9":-0.39258891344070435,"10":-0.5611627101898193,"11":-0.49775803089141846,"12":-0.4449476897716522,"13":-0.39996033906936646}},"cellActivationHidden":{"rows":2,"columns":2,"weights":{"0":0.3249119520187378,"1":0.4002189040184021,"2":0.2522422969341278,"3":0.2962982952594757}},"cellActivationBias":{"rows":2,"columns":1,"weights":{"0":0.7951793670654297,"1":0.7310441136360168}}}],"outputConnector":{"rows":2,"columns":2,"weights":{"0":0.4313914477825165,"1":0.47908639907836914,"2":0.014454985037446022,"3":-0.015300320461392403}},"output":{"rows":2,"columns":1,"weights":{"0":0.35214996337890625,"1":0.9998010396957397}},"inputLookup":{"unidades":0,"precio":1},"inputLookupLength":2,"outputLookup":{"unidades":0,"precio":1},"outputLookupLength":2}